digraph Tree {
node [shape=box, style="rounded", color="black", fontname="helvetica"] ;
edge [fontname="helvetica"] ;
0 [label=<property_rooms &le; 5.11<br/>squared_error = 0.09<br/>samples = 256<br/>value = 0.49>] ;
1 [label=<property_surface_covered &le; 144.52<br/>squared_error = 0.09<br/>samples = 255<br/>value = 0.49>] ;
0 -> 1 [labeldistance=2.5, labelangle=45, headlabel="True"] ;
2 [label=<property_price &le; 374366.06<br/>squared_error = 0.09<br/>samples = 244<br/>value = 0.5>] ;
1 -> 2 ;
3 [label=<property_surface_covered &le; 115.17<br/>squared_error = 0.09<br/>samples = 232<br/>value = 0.5>] ;
2 -> 3 ;
4 [label=<property_rooms &le; 3.97<br/>squared_error = 0.09<br/>samples = 228<br/>value = 0.5>] ;
3 -> 4 ;
5 [label=<property_surface_total &le; 97.74<br/>squared_error = 0.09<br/>samples = 189<br/>value = 0.49>] ;
4 -> 5 ;
6 [label="(...)"] ;
5 -> 6 ;
11 [label="(...)"] ;
5 -> 11 ;
16 [label=<property_bedrooms &le; 2.02<br/>squared_error = 0.1<br/>samples = 39<br/>value = 0.52>] ;
4 -> 16 ;
17 [label="(...)"] ;
16 -> 17 ;
20 [label="(...)"] ;
16 -> 20 ;
27 [label=<property_surface_covered &le; 125.3<br/>squared_error = 0.06<br/>samples = 4<br/>value = 0.4>] ;
3 -> 27 ;
28 [label=<squared_error = 0.0<br/>samples = 1<br/>value = 0.81>] ;
27 -> 28 ;
29 [label=<property_price &le; 188141.45<br/>squared_error = 0.01<br/>samples = 3<br/>value = 0.27>] ;
27 -> 29 ;
30 [label="(...)"] ;
29 -> 30 ;
31 [label="(...)"] ;
29 -> 31 ;
34 [label=<property_rooms &le; 3.23<br/>squared_error = 0.05<br/>samples = 12<br/>value = 0.47>] ;
2 -> 34 ;
35 [label=<property_surface_total &le; 176.48<br/>squared_error = 0.09<br/>samples = 2<br/>value = 0.42>] ;
34 -> 35 ;
36 [label=<squared_error = 0.0<br/>samples = 1<br/>value = 0.72>] ;
35 -> 36 ;
37 [label=<squared_error = 0.0<br/>samples = 1<br/>value = 0.12>] ;
35 -> 37 ;
38 [label=<property_surface_covered &le; 114.98<br/>squared_error = 0.04<br/>samples = 10<br/>value = 0.48>] ;
34 -> 38 ;
39 [label=<property_price &le; 411197.64<br/>squared_error = 0.07<br/>samples = 4<br/>value = 0.47>] ;
38 -> 39 ;
40 [label="(...)"] ;
39 -> 40 ;
45 [label="(...)"] ;
39 -> 45 ;
46 [label=<property_price &le; 443704.42<br/>squared_error = 0.03<br/>samples = 6<br/>value = 0.5>] ;
38 -> 46 ;
47 [label="(...)"] ;
46 -> 47 ;
54 [label="(...)"] ;
46 -> 54 ;
55 [label=<property_price &le; 350476.85<br/>squared_error = 0.08<br/>samples = 11<br/>value = 0.44>] ;
1 -> 55 ;
56 [label=<property_surface_covered &le; 164.89<br/>squared_error = 0.07<br/>samples = 9<br/>value = 0.37>] ;
55 -> 56 ;
57 [label=<property_rooms &le; 4.36<br/>squared_error = 0.07<br/>samples = 4<br/>value = 0.5>] ;
56 -> 57 ;
58 [label=<property_surface_covered &le; 147.09<br/>squared_error = 0.0<br/>samples = 2<br/>value = 0.62>] ;
57 -> 58 ;
59 [label="(...)"] ;
58 -> 59 ;
60 [label="(...)"] ;
58 -> 60 ;
61 [label=<property_surface_total &le; 259.35<br/>squared_error = 0.12<br/>samples = 2<br/>value = 0.38>] ;
57 -> 61 ;
62 [label="(...)"] ;
61 -> 62 ;
63 [label="(...)"] ;
61 -> 63 ;
64 [label=<property_surface_covered &le; 172.52<br/>squared_error = 0.04<br/>samples = 5<br/>value = 0.27>] ;
56 -> 64 ;
65 [label=<squared_error = 0.0<br/>samples = 1<br/>value = 0.35>] ;
64 -> 65 ;
66 [label=<property_price &le; 187782.37<br/>squared_error = 0.05<br/>samples = 4<br/>value = 0.25>] ;
64 -> 66 ;
67 [label="(...)"] ;
66 -> 67 ;
70 [label="(...)"] ;
66 -> 70 ;
73 [label=<property_surface_total &le; 172.3<br/>squared_error = 0.01<br/>samples = 2<br/>value = 0.73>] ;
55 -> 73 ;
74 [label=<squared_error = 0.0<br/>samples = 1<br/>value = 0.83>] ;
73 -> 74 ;
75 [label=<squared_error = 0.0<br/>samples = 1<br/>value = 0.62>] ;
73 -> 75 ;
76 [label=<squared_error = 0.0<br/>samples = 1<br/>value = 0.02>] ;
0 -> 76 [labeldistance=2.5, labelangle=-45, headlabel="False"] ;
}